<?xml version="1.0"?>
<opencv_storage>
<cascade>
  <stageType>BOOST</stageType>
  <featureType>HAAR</featureType>
  <height>24</height>
  <width>24</width>
  <stageParams>
    <boostType>GAB</boostType>
    <minHitRate>9.9500000476837158e-01</minHitRate>
    <maxFalseAlarm>5.0000000000000000e-01</maxFalseAlarm>
    <weightTrimRate>9.4999998807907104e-01</weightTrimRate>
    <maxDepth>1</maxDepth>
    <maxWeakCount>100</maxWeakCount></stageParams>
  <featureParams>
    <maxCatCount>0</maxCatCount>
    <featSize>1</featSize>
    <mode>BASIC</mode></featureParams>
  <stageNum>9</stageNum>
  <stages>
    <!-- stage 0 -->
    <_>
      <maxWeakCount>4</maxWeakCount>
      <stageThreshold>-1.6693516969680786e+00</stageThreshold>
      <weakClassifiers>
        <_>
          <internalNodes>
            0 -1 2 -2.7397838234901428e-01</internalNodes>
          <leafValues>
            8.0891722440719604e-01 -8.9788055419921875e-01</leafValues></_>
        <_>
          <internalNodes>
            0 -1 17 -1.0008850693702698e-01</internalNodes>
          <leafValues>
            8.3976036310195923e-01 -6.7238593101501465e-01</leafValues></_>
        <_>
          <internalNodes>
            0 -1 9 -1.1122973635792732e-02</internalNodes>
          <leafValues>
            4.4801393151283264e-01 -8.3049076795578003e-01</leafValues></_>
        <_>
          <internalNodes>
            0 -1 21 -2.2666388750076294e-01</internalNodes>
          <leafValues>
            8.5341113805770874e-01 -5.4709917306900024e-01</leafValues></_></weakClassifiers></_>
    <!-- stage 1 -->
    <_>
      <maxWeakCount>3</maxWeakCount>
      <stageThreshold>-1.5247564315795898e+00</stageThreshold>
      <weakClassifiers>
        <_>
          <internalNodes>
            0 -1 1 -3.0700790882110596e-01</internalNodes>
          <leafValues>
            8.5123968124389648e-01 -8.4543764591217041e-01</leafValues></_>
        <_>
          <internalNodes>
            0 -1 7 -1.0809572413563728e-03</internalNodes>
          <leafValues>
            -9.0886574983596802e-01 1.5418860316276550e-01</leafValues></_>
        <_>
          <internalNodes>
            0 -1 11 -1.5432343934662640e-04</internalNodes>
          <leafValues>
            -1. 2.2954688966274261e-01</leafValues></_></weakClassifiers></_>
    <!-- stage 2 -->
    <_>
      <maxWeakCount>3</maxWeakCount>
      <stageThreshold>-1.3642573356628418e+00</stageThreshold>
      <weakClassifiers>
        <_>
          <internalNodes>
            0 -1 11 7.9468148760497570e-04</internalNodes>
          <leafValues>
            3.4615385532379150e-01 -9.5721924304962158e-01</leafValues></_>
        <_>
          <internalNodes>
            0 -1 3 -2.6211696863174438e-01</internalNodes>
          <leafValues>
            6.6988897323608398e-01 -8.0273878574371338e-01</leafValues></_>
        <_>
          <internalNodes>
            0 -1 12 1.6731915529817343e-03</internalNodes>
          <leafValues>
            3.9570069313049316e-01 -9.6997487545013428e-01</leafValues></_></weakClassifiers></_>
    <!-- stage 3 -->
    <_>
      <maxWeakCount>2</maxWeakCount>
      <stageThreshold>-5.0569796562194824e-01</stageThreshold>
      <weakClassifiers>
        <_>
          <internalNodes>
            0 -1 0 -5.4541563987731934e-01</internalNodes>
          <leafValues>
            6.9999998807907104e-01 -7.9908674955368042e-01</leafValues></_>
        <_>
          <internalNodes>
            0 -1 15 -4.0343837463296950e-04</internalNodes>
          <leafValues>
            -1. 2.9338878393173218e-01</leafValues></_></weakClassifiers></_>
    <!-- stage 4 -->
    <_>
      <maxWeakCount>3</maxWeakCount>
      <stageThreshold>-1.4892923831939697e+00</stageThreshold>
      <weakClassifiers>
        <_>
          <internalNodes>
            0 -1 19 -2.8398451209068298e-01</internalNodes>
          <leafValues>
            3.2584270834922791e-01 -8.4857422113418579e-01</leafValues></_>
        <_>
          <internalNodes>
            0 -1 25 -1.8975890270667151e-05</internalNodes>
          <leafValues>
            1.8256071209907532e-01 -8.9173632860183716e-01</leafValues></_>
        <_>
          <internalNodes>
            0 -1 13 1.0051471181213856e-03</internalNodes>
          <leafValues>
            2.5101816654205322e-01 -9.7444659471511841e-01</leafValues></_></weakClassifiers></_>
    <!-- stage 5 -->
    <_>
      <maxWeakCount>4</maxWeakCount>
      <stageThreshold>-2.2019221782684326e+00</stageThreshold>
      <weakClassifiers>
        <_>
          <internalNodes>
            0 -1 14 -3.9142823219299316e-01</internalNodes>
          <leafValues>
            6.1904764175415039e-01 -7.9816514253616333e-01</leafValues></_>
        <_>
          <internalNodes>
            0 -1 13 2.0192201191093773e-05</internalNodes>
          <leafValues>
            -8.4830474853515625e-01 4.3912833929061890e-01</leafValues></_>
        <_>
          <internalNodes>
            0 -1 4 1.8110402379534207e-05</internalNodes>
          <leafValues>
            -9.2103689908981323e-01 2.5845372676849365e-01</leafValues></_>
        <_>
          <internalNodes>
            0 -1 5 -4.9866631161421537e-04</internalNodes>
          <leafValues>
            -9.2184853553771973e-01 2.9046463966369629e-01</leafValues></_></weakClassifiers></_>
    <!-- stage 6 -->
    <_>
      <maxWeakCount>2</maxWeakCount>
      <stageThreshold>-6.2192219495773315e-01</stageThreshold>
      <weakClassifiers>
        <_>
          <internalNodes>
            0 -1 20 -1.9904342293739319e-01</internalNodes>
          <leafValues>
            4.0384614467620850e-01 -7.7635198831558228e-01</leafValues></_>
        <_>
          <internalNodes>
            0 -1 8 -2.0857982235611416e-05</internalNodes>
          <leafValues>
            1.5442976355552673e-01 -9.8492580652236938e-01</leafValues></_></weakClassifiers></_>
    <!-- stage 7 -->
    <_>
      <maxWeakCount>3</maxWeakCount>
      <stageThreshold>-1.0296688079833984e+00</stageThreshold>
      <weakClassifiers>
        <_>
          <internalNodes>
            0 -1 10 -3.8568343734368682e-04</internalNodes>
          <leafValues>
            -3.1354358792304993e-01 -9.6951222419738770e-01</leafValues></_>
        <_>
          <internalNodes>
            0 -1 23 -3.7691635952796787e-05</internalNodes>
          <leafValues>
            1.3913603127002716e-01 -8.9780706167221069e-01</leafValues></_>
        <_>
          <internalNodes>
            0 -1 16 2.3718138691037893e-03</internalNodes>
          <leafValues>
            -8.5526126623153687e-01 2.8968441486358643e-01</leafValues></_></weakClassifiers></_>
    <!-- stage 8 -->
    <_>
      <maxWeakCount>4</maxWeakCount>
      <stageThreshold>-1.2665921449661255e+00</stageThreshold>
      <weakClassifiers>
        <_>
          <internalNodes>
            0 -1 24 -1.4558011665940285e-02</internalNodes>
          <leafValues>
            2.4031007289886475e-01 -7.8424012660980225e-01</leafValues></_>
        <_>
          <internalNodes>
            0 -1 6 -7.1384165494237095e-05</internalNodes>
          <leafValues>
            1.9077384471893311e-01 -9.2718029022216797e-01</leafValues></_>
        <_>
          <internalNodes>
            0 -1 18 -2.1353833290049806e-05</internalNodes>
          <leafValues>
            2.7229425311088562e-01 -8.7697368860244751e-01</leafValues></_>
        <_>
          <internalNodes>
            0 -1 22 2.7814740315079689e-04</internalNodes>
          <leafValues>
            3.2164666056632996e-01 -9.4542014598846436e-01</leafValues></_></weakClassifiers></_></stages>
  <features>
    <_>
      <rects>
        <_>
          0 9 24 15 -1.</_>
        <_>
          12 9 12 15 2.</_></rects>
      <tilted>0</tilted></_>
    <_>
      <rects>
        <_>
          0 11 24 9 -1.</_>
        <_>
          12 11 12 9 2.</_></rects>
      <tilted>0</tilted></_>
    <_>
      <rects>
        <_>
          0 11 24 13 -1.</_>
        <_>
          12 11 12 13 2.</_></rects>
      <tilted>0</tilted></_>
    <_>
      <rects>
        <_>
          0 14 24 10 -1.</_>
        <_>
          12 14 12 10 2.</_></rects>
      <tilted>0</tilted></_>
    <_>
      <rects>
        <_>
          0 18 10 2 -1.</_>
        <_>
          0 18 5 1 2.</_>
        <_>
          5 19 5 1 2.</_></rects>
      <tilted>0</tilted></_>
    <_>
      <rects>
        <_>
          0 19 10 4 -1.</_>
        <_>
          0 19 5 2 2.</_>
        <_>
          5 21 5 2 2.</_></rects>
      <tilted>0</tilted></_>
    <_>
      <rects>
        <_>
          0 20 6 4 -1.</_>
        <_>
          0 20 3 2 2.</_>
        <_>
          3 22 3 2 2.</_></rects>
      <tilted>0</tilted></_>
    <_>
      <rects>
        <_>
          1 0 18 3 -1.</_>
        <_>
          7 0 6 3 3.</_></rects>
      <tilted>0</tilted></_>
    <_>
      <rects>
        <_>
          2 1 8 2 -1.</_>
        <_>
          2 1 4 1 2.</_>
        <_>
          6 2 4 1 2.</_></rects>
      <tilted>0</tilted></_>
    <_>
      <rects>
        <_>
          2 1 10 18 -1.</_>
        <_>
          7 1 5 18 2.</_></rects>
      <tilted>0</tilted></_>
    <_>
      <rects>
        <_>
          2 2 6 4 -1.</_>
        <_>
          2 2 3 2 2.</_>
        <_>
          5 4 3 2 2.</_></rects>
      <tilted>0</tilted></_>
    <_>
      <rects>
        <_>
          2 5 3 6 -1.</_>
        <_>
          3 5 1 6 3.</_></rects>
      <tilted>0</tilted></_>
    <_>
      <rects>
        <_>
          2 5 3 7 -1.</_>
        <_>
          3 5 1 7 3.</_></rects>
      <tilted>0</tilted></_>
    <_>
      <rects>
        <_>
          2 9 3 4 -1.</_>
        <_>
          3 9 1 4 3.</_></rects>
      <tilted>0</tilted></_>
    <_>
      <rects>
        <_>
          2 10 22 11 -1.</_>
        <_>
          13 10 11 11 2.</_></rects>
      <tilted>0</tilted></_>
    <_>
      <rects>
        <_>
          2 11 3 1 -1.</_>
        <_>
          3 11 1 1 3.</_></rects>
      <tilted>0</tilted></_>
    <_>
      <rects>
        <_>
          2 16 10 8 -1.</_>
        <_>
          2 16 5 4 2.</_>
        <_>
          7 20 5 4 2.</_></rects>
      <tilted>0</tilted></_>
    <_>
      <rects>
        <_>
          3 10 18 5 -1.</_>
        <_>
          9 10 6 5 3.</_></rects>
      <tilted>0</tilted></_>
    <_>
      <rects>
        <_>
          7 4 1 6 -1.</_>
        <_>
          7 7 1 3 2.</_></rects>
      <tilted>0</tilted></_>
    <_>
      <rects>
        <_>
          9 0 15 18 -1.</_>
        <_>
          9 9 15 9 2.</_></rects>
      <tilted>0</tilted></_>
    <_>
      <rects>
        <_>
          9 5 11 18 -1.</_>
        <_>
          9 11 11 6 3.</_></rects>
      <tilted>0</tilted></_>
    <_>
      <rects>
        <_>
          10 0 14 18 -1.</_>
        <_>
          10 9 14 9 2.</_></rects>
      <tilted>0</tilted></_>
    <_>
      <rects>
        <_>
          12 0 6 2 -1.</_>
        <_>
          12 0 3 1 2.</_>
        <_>
          15 1 3 1 2.</_></rects>
      <tilted>0</tilted></_>
    <_>
      <rects>
        <_>
          13 0 1 2 -1.</_>
        <_>
          13 1 1 1 2.</_></rects>
      <tilted>0</tilted></_>
    <_>
      <rects>
        <_>
          14 23 10 1 -1.</_>
        <_>
          19 23 5 1 2.</_></rects>
      <tilted>0</tilted></_>
    <_>
      <rects>
        <_>
          21 0 1 2 -1.</_>
        <_>
          21 1 1 1 2.</_></rects>
      <tilted>0</tilted></_></features></cascade>
</opencv_storage>
