<?xml version="1.0"?>
<opencv_storage>
<stage4>
  <maxWeakCount>5</maxWeakCount>
  <stageThreshold>-1.0660184621810913e+00</stageThreshold>
  <weakClassifiers>
    <_>
      <internalNodes>
        0 -1 73326 -1.0114496946334839e-01</internalNodes>
      <leafValues>
        -1.1071725645057957e-18 -8.2043343782424927e-01</leafValues></_>
    <_>
      <internalNodes>
        0 -1 158833 4.2603882320690900e-05</internalNodes>
      <leafValues>
        -9.1157174110412598e-01 1.5043832361698151e-01</leafValues></_>
    <_>
      <internalNodes>
        0 -1 25901 5.3242407739162445e-04</internalNodes>
      <leafValues>
        2.3770223557949066e-01 -9.2825478315353394e-01</leafValues></_>
    <_>
      <internalNodes>
        0 -1 25901 -1.2314338237047195e-03</internalNodes>
      <leafValues>
        -8.7415993213653564e-01 3.8941207528114319e-01</leafValues></_>
    <_>
      <internalNodes>
        0 -1 160929 4.2658022721298039e-05</internalNodes>
      <leafValues>
        -7.8156095743179321e-01 2.9885202646255493e-01</leafValues></_></weakClassifiers></stage4>
</opencv_storage>
