<?xml version="1.0"?>
<opencv_storage>
<stage13>
  <maxWeakCount>5</maxWeakCount>
  <stageThreshold>-1.5690983533859253e+00</stageThreshold>
  <weakClassifiers>
    <_>
      <internalNodes>
        0 -1 111092 -9.3309078365564346e-03</internalNodes>
      <leafValues>
        -1.6666667163372040e-01 -8.3202689886093140e-01</leafValues></_>
    <_>
      <internalNodes>
        0 -1 49312 1.7534065409563482e-04</internalNodes>
      <leafValues>
        1.3114398717880249e-01 -8.8712483644485474e-01</leafValues></_>
    <_>
      <internalNodes>
        0 -1 161001 9.8920536402147263e-05</internalNodes>
      <leafValues>
        -9.2775326967239380e-01 1.6756823658943176e-01</leafValues></_>
    <_>
      <internalNodes>
        0 -1 89986 3.4693343332037330e-04</internalNodes>
      <leafValues>
        1.9202755391597748e-01 -9.0719437599182129e-01</leafValues></_>
    <_>
      <internalNodes>
        0 -1 49638 3.4519826294854283e-04</internalNodes>
      <leafValues>
        1.9485278427600861e-01 -8.7490272521972656e-01</leafValues></_></weakClassifiers></stage13>
</opencv_storage>
