<?xml version="1.0"?>
<opencv_storage>
<cascade>
  <stageType>BOOST</stageType>
  <featureType>HAAR</featureType>
  <height>24</height>
  <width>24</width>
  <stageParams>
    <boostType>GAB</boostType>
    <minHitRate>9.9500000476837158e-01</minHitRate>
    <maxFalseAlarm>5.0000000000000000e-01</maxFalseAlarm>
    <weightTrimRate>9.4999998807907104e-01</weightTrimRate>
    <maxDepth>1</maxDepth>
    <maxWeakCount>100</maxWeakCount></stageParams>
  <featureParams>
    <maxCatCount>0</maxCatCount>
    <featSize>1</featSize>
    <mode>BASIC</mode></featureParams>
  <stageNum>14</stageNum>
  <stages>
    <!-- stage 0 -->
    <_>
      <maxWeakCount>2</maxWeakCount>
      <stageThreshold>-3.0777150392532349e-01</stageThreshold>
      <weakClassifiers>
        <_>
          <internalNodes>
            0 -1 9 -1.2758326530456543e-01</internalNodes>
          <leafValues>
            6.5665233135223389e-01 -9.7530865669250488e-01</leafValues></_>
        <_>
          <internalNodes>
            0 -1 32 6.5161585807800293e-02</internalNodes>
          <leafValues>
            -9.1169428825378418e-01 6.6753715276718140e-01</leafValues></_></weakClassifiers></_>
    <!-- stage 1 -->
    <_>
      <maxWeakCount>4</maxWeakCount>
      <stageThreshold>-9.8219078779220581e-01</stageThreshold>
      <weakClassifiers>
        <_>
          <internalNodes>
            0 -1 24 -1.4165322482585907e-01</internalNodes>
          <leafValues>
            3.0731707811355591e-01 -8.5799998044967651e-01</leafValues></_>
        <_>
          <internalNodes>
            0 -1 0 -1.0954008996486664e-01</internalNodes>
          <leafValues>
            5.6967306137084961e-01 -7.7680057287216187e-01</leafValues></_>
        <_>
          <internalNodes>
            0 -1 23 -2.4640406481921673e-03</internalNodes>
          <leafValues>
            -9.5062935352325439e-01 3.0896362662315369e-01</leafValues></_>
        <_>
          <internalNodes>
            0 -1 7 -7.2975769639015198e-02</internalNodes>
          <leafValues>
            3.4364613890647888e-01 -9.2466580867767334e-01</leafValues></_></weakClassifiers></_>
    <!-- stage 2 -->
    <_>
      <maxWeakCount>4</maxWeakCount>
      <stageThreshold>-1.2704538106918335e+00</stageThreshold>
      <weakClassifiers>
        <_>
          <internalNodes>
            0 -1 27 -8.2452222704887390e-02</internalNodes>
          <leafValues>
            3.0120483040809631e-01 -8.1328201293945313e-01</leafValues></_>
        <_>
          <internalNodes>
            0 -1 47 2.2005200662533753e-05</internalNodes>
          <leafValues>
            -9.5156109333038330e-01 1.3277898728847504e-01</leafValues></_>
        <_>
          <internalNodes>
            0 -1 4 -1.9045712542720139e-04</internalNodes>
          <leafValues>
            2.4847401678562164e-01 -9.2430102825164795e-01</leafValues></_>
        <_>
          <internalNodes>
            0 -1 43 4.1143689304590225e-04</internalNodes>
          <leafValues>
            3.3435025811195374e-01 -9.2474740743637085e-01</leafValues></_></weakClassifiers></_>
    <!-- stage 3 -->
    <_>
      <maxWeakCount>4</maxWeakCount>
      <stageThreshold>-1.4203917980194092e+00</stageThreshold>
      <weakClassifiers>
        <_>
          <internalNodes>
            0 -1 43 -3.2337231095880270e-04</internalNodes>
          <leafValues>
            -9.7043013572692871e-01 -1.5835140645503998e-01</leafValues></_>
        <_>
          <internalNodes>
            0 -1 29 1.2178201228380203e-01</internalNodes>
          <leafValues>
            -7.5222033262252808e-01 3.1559267640113831e-01</leafValues></_>
        <_>
          <internalNodes>
            0 -1 5 -4.6236822527134791e-05</internalNodes>
          <leafValues>
            3.3831554651260376e-01 -8.3170288801193237e-01</leafValues></_>
        <_>
          <internalNodes>
            0 -1 44 -4.9946759827435017e-04</internalNodes>
          <leafValues>
            -9.3040621280670166e-01 3.2188284397125244e-01</leafValues></_></weakClassifiers></_>
    <!-- stage 4 -->
    <_>
      <maxWeakCount>5</maxWeakCount>
      <stageThreshold>-1.0660184621810913e+00</stageThreshold>
      <weakClassifiers>
        <_>
          <internalNodes>
            0 -1 19 -1.0114496946334839e-01</internalNodes>
          <leafValues>
            -1.1071725645057957e-18 -8.2043343782424927e-01</leafValues></_>
        <_>
          <internalNodes>
            0 -1 36 4.2603882320690900e-05</internalNodes>
          <leafValues>
            -9.1157174110412598e-01 1.5043832361698151e-01</leafValues></_>
        <_>
          <internalNodes>
            0 -1 8 5.3242407739162445e-04</internalNodes>
          <leafValues>
            2.3770223557949066e-01 -9.2825478315353394e-01</leafValues></_>
        <_>
          <internalNodes>
            0 -1 8 -1.2314338237047195e-03</internalNodes>
          <leafValues>
            -8.7415993213653564e-01 3.8941207528114319e-01</leafValues></_>
        <_>
          <internalNodes>
            0 -1 40 4.2658022721298039e-05</internalNodes>
          <leafValues>
            -7.8156095743179321e-01 2.9885202646255493e-01</leafValues></_></weakClassifiers></_>
    <!-- stage 5 -->
    <_>
      <maxWeakCount>4</maxWeakCount>
      <stageThreshold>-1.2687293291091919e+00</stageThreshold>
      <weakClassifiers>
        <_>
          <internalNodes>
            0 -1 20 -1.1945024132728577e-01</internalNodes>
          <leafValues>
            4.5098039507865906e-01 -8.2129275798797607e-01</leafValues></_>
        <_>
          <internalNodes>
            0 -1 40 2.2032720153219998e-04</internalNodes>
          <leafValues>
            3.2294008135795593e-01 -8.4039574861526489e-01</leafValues></_>
        <_>
          <internalNodes>
            0 -1 10 1.3842174666933715e-04</internalNodes>
          <leafValues>
            1.8722917139530182e-01 -9.3530076742172241e-01</leafValues></_>
        <_>
          <internalNodes>
            0 -1 21 -9.5520532340742648e-05</internalNodes>
          <leafValues>
            -9.8782747983932495e-01 2.0573000609874725e-01</leafValues></_></weakClassifiers></_>
    <!-- stage 6 -->
    <_>
      <maxWeakCount>2</maxWeakCount>
      <stageThreshold>-5.0204813480377197e-01</stageThreshold>
      <weakClassifiers>
        <_>
          <internalNodes>
            0 -1 3 -3.3526706695556641e-01</internalNodes>
          <leafValues>
            5.7522124052047729e-01 -7.8754580020904541e-01</leafValues></_>
        <_>
          <internalNodes>
            0 -1 21 3.3072961377911270e-04</internalNodes>
          <leafValues>
            2.8549763560295105e-01 -9.6243649721145630e-01</leafValues></_></weakClassifiers></_>
    <!-- stage 7 -->
    <_>
      <maxWeakCount>5</maxWeakCount>
      <stageThreshold>-1.5322635173797607e+00</stageThreshold>
      <weakClassifiers>
        <_>
          <internalNodes>
            0 -1 36 3.1310404301621020e-04</internalNodes>
          <leafValues>
            -2.1243523061275482e-01 -8.7057387828826904e-01</leafValues></_>
        <_>
          <internalNodes>
            0 -1 10 -2.1581457986030728e-04</internalNodes>
          <leafValues>
            -9.3982326984405518e-01 1.3407298922538757e-01</leafValues></_>
        <_>
          <internalNodes>
            0 -1 2 -4.4974411139264703e-05</internalNodes>
          <leafValues>
            3.3185398578643799e-01 -7.5205469131469727e-01</leafValues></_>
        <_>
          <internalNodes>
            0 -1 12 3.1016560387797654e-04</internalNodes>
          <leafValues>
            3.0227753520011902e-01 -9.3291288614273071e-01</leafValues></_>
        <_>
          <internalNodes>
            0 -1 48 3.6983907921239734e-04</internalNodes>
          <leafValues>
            2.3106633126735687e-01 -9.3474650382995605e-01</leafValues></_></weakClassifiers></_>
    <!-- stage 8 -->
    <_>
      <maxWeakCount>4</maxWeakCount>
      <stageThreshold>-1.2958977222442627e+00</stageThreshold>
      <weakClassifiers>
        <_>
          <internalNodes>
            0 -1 30 2.5785114616155624e-02</internalNodes>
          <leafValues>
            -7.5226038694381714e-01 3.7373736500740051e-01</leafValues></_>
        <_>
          <internalNodes>
            0 -1 42 -5.4057862143963575e-04</internalNodes>
          <leafValues>
            -8.5622620582580566e-01 1.4210666716098785e-01</leafValues></_>
        <_>
          <internalNodes>
            0 -1 45 9.4833609182387590e-05</internalNodes>
          <leafValues>
            -9.7834545373916626e-01 1.9081404805183411e-01</leafValues></_>
        <_>
          <internalNodes>
            0 -1 14 -9.2270507593639195e-05</internalNodes>
          <leafValues>
            2.4364154040813446e-01 -8.7655806541442871e-01</leafValues></_></weakClassifiers></_>
    <!-- stage 9 -->
    <_>
      <maxWeakCount>4</maxWeakCount>
      <stageThreshold>-1.0711665153503418e+00</stageThreshold>
      <weakClassifiers>
        <_>
          <internalNodes>
            0 -1 13 -9.0248033404350281e-02</internalNodes>
          <leafValues>
            5.7575756311416626e-01 -7.3134326934814453e-01</leafValues></_>
        <_>
          <internalNodes>
            0 -1 1 -4.5597509597428143e-05</internalNodes>
          <leafValues>
            2.1989151835441589e-01 -7.7294659614562988e-01</leafValues></_>
        <_>
          <internalNodes>
            0 -1 46 4.7091540182009339e-04</internalNodes>
          <leafValues>
            3.3033630251884460e-01 -7.4914497137069702e-01</leafValues></_>
        <_>
          <internalNodes>
            0 -1 34 -1.3941156794317067e-04</internalNodes>
          <leafValues>
            -9.4764512777328491e-01 1.8943026661872864e-01</leafValues></_></weakClassifiers></_>
    <!-- stage 10 -->
    <_>
      <maxWeakCount>5</maxWeakCount>
      <stageThreshold>-1.2759251594543457e+00</stageThreshold>
      <weakClassifiers>
        <_>
          <internalNodes>
            0 -1 31 -1.4997635968029499e-02</internalNodes>
          <leafValues>
            -5.8823529630899429e-02 -8.4934496879577637e-01</leafValues></_>
        <_>
          <internalNodes>
            0 -1 35 1.7745044897310436e-04</internalNodes>
          <leafValues>
            1.1326058208942413e-01 -8.7913900613784790e-01</leafValues></_>
        <_>
          <internalNodes>
            0 -1 39 -1.3502853107638657e-04</internalNodes>
          <leafValues>
            -9.2938429117202759e-01 1.6377454996109009e-01</leafValues></_>
        <_>
          <internalNodes>
            0 -1 22 -4.4507178245112300e-05</internalNodes>
          <leafValues>
            2.8876376152038574e-01 -6.9918394088745117e-01</leafValues></_>
        <_>
          <internalNodes>
            0 -1 6 -1.3669262989424169e-04</internalNodes>
          <leafValues>
            -7.9050099849700928e-01 2.6198101043701172e-01</leafValues></_></weakClassifiers></_>
    <!-- stage 11 -->
    <_>
      <maxWeakCount>4</maxWeakCount>
      <stageThreshold>-1.0673069953918457e+00</stageThreshold>
      <weakClassifiers>
        <_>
          <internalNodes>
            0 -1 28 -1.1438030749559402e-01</internalNodes>
          <leafValues>
            7.6190477609634399e-01 -7.1109199523925781e-01</leafValues></_>
        <_>
          <internalNodes>
            0 -1 26 -4.4511030428111553e-03</internalNodes>
          <leafValues>
            2.4270603060722351e-01 -7.4427348375320435e-01</leafValues></_>
        <_>
          <internalNodes>
            0 -1 37 5.3435115842148662e-04</internalNodes>
          <leafValues>
            2.5257113575935364e-01 -8.6872416734695435e-01</leafValues></_>
        <_>
          <internalNodes>
            0 -1 16 -4.4547865400090814e-05</internalNodes>
          <leafValues>
            2.6980319619178772e-01 -8.1766831874847412e-01</leafValues></_></weakClassifiers></_>
    <!-- stage 12 -->
    <_>
      <maxWeakCount>4</maxWeakCount>
      <stageThreshold>-1.2786595821380615e+00</stageThreshold>
      <weakClassifiers>
        <_>
          <internalNodes>
            0 -1 11 1.6864323616027832e-01</internalNodes>
          <leafValues>
            -7.0668953657150269e-01 7.4358975887298584e-01</leafValues></_>
        <_>
          <internalNodes>
            0 -1 38 -6.2546902336180210e-04</internalNodes>
          <leafValues>
            -1. 8.8922344148159027e-02</leafValues></_>
        <_>
          <internalNodes>
            0 -1 15 1.7501693218946457e-04</internalNodes>
          <leafValues>
            2.1452303230762482e-01 -8.4827333688735962e-01</leafValues></_>
        <_>
          <internalNodes>
            0 -1 18 2.3709272500127554e-04</internalNodes>
          <leafValues>
            1.8738092482089996e-01 -9.7545504570007324e-01</leafValues></_></weakClassifiers></_>
    <!-- stage 13 -->
    <_>
      <maxWeakCount>5</maxWeakCount>
      <stageThreshold>-1.5690983533859253e+00</stageThreshold>
      <weakClassifiers>
        <_>
          <internalNodes>
            0 -1 33 -9.3309078365564346e-03</internalNodes>
          <leafValues>
            -1.6666667163372040e-01 -8.3202689886093140e-01</leafValues></_>
        <_>
          <internalNodes>
            0 -1 15 1.7534065409563482e-04</internalNodes>
          <leafValues>
            1.3114398717880249e-01 -8.8712483644485474e-01</leafValues></_>
        <_>
          <internalNodes>
            0 -1 41 9.8920536402147263e-05</internalNodes>
          <leafValues>
            -9.2775326967239380e-01 1.6756823658943176e-01</leafValues></_>
        <_>
          <internalNodes>
            0 -1 25 3.4693343332037330e-04</internalNodes>
          <leafValues>
            1.9202755391597748e-01 -9.0719437599182129e-01</leafValues></_>
        <_>
          <internalNodes>
            0 -1 17 3.4519826294854283e-04</internalNodes>
          <leafValues>
            1.9485278427600861e-01 -8.7490272521972656e-01</leafValues></_></weakClassifiers></_></stages>
  <features>
    <_>
      <rects>
        <_>
          0 0 4 24 -1.</_>
        <_>
          0 12 4 12 2.</_></rects>
      <tilted>0</tilted></_>
    <_>
      <rects>
        <_>
          0 1 4 1 -1.</_>
        <_>
          2 1 2 1 2.</_></rects>
      <tilted>0</tilted></_>
    <_>
      <rects>
        <_>
          0 2 4 1 -1.</_>
        <_>
          2 2 2 1 2.</_></rects>
      <tilted>0</tilted></_>
    <_>
      <rects>
        <_>
          0 6 21 18 -1.</_>
        <_>
          7 6 7 18 3.</_></rects>
      <tilted>0</tilted></_>
    <_>
      <rects>
        <_>
          0 16 1 8 -1.</_>
        <_>
          0 20 1 4 2.</_></rects>
      <tilted>0</tilted></_>
    <_>
      <rects>
        <_>
          0 22 2 2 -1.</_>
        <_>
          0 23 2 1 2.</_></rects>
      <tilted>0</tilted></_>
    <_>
      <rects>
        <_>
          0 22 8 2 -1.</_>
        <_>
          0 22 4 1 2.</_>
        <_>
          4 23 4 1 2.</_></rects>
      <tilted>0</tilted></_>
    <_>
      <rects>
        <_>
          1 0 23 12 -1.</_>
        <_>
          1 6 23 6 2.</_></rects>
      <tilted>0</tilted></_>
    <_>
      <rects>
        <_>
          2 0 6 4 -1.</_>
        <_>
          4 0 2 4 3.</_></rects>
      <tilted>0</tilted></_>
    <_>
      <rects>
        <_>
          2 0 11 20 -1.</_>
        <_>
          2 10 11 10 2.</_></rects>
      <tilted>0</tilted></_>
    <_>
      <rects>
        <_>
          2 1 3 3 -1.</_>
        <_>
          3 1 1 3 3.</_></rects>
      <tilted>0</tilted></_>
    <_>
      <rects>
        <_>
          2 8 14 12 -1.</_>
        <_>
          2 12 14 4 3.</_></rects>
      <tilted>0</tilted></_>
    <_>
      <rects>
        <_>
          2 22 21 2 -1.</_>
        <_>
          2 23 21 1 2.</_></rects>
      <tilted>0</tilted></_>
    <_>
      <rects>
        <_>
          3 10 15 3 -1.</_>
        <_>
          8 10 5 3 3.</_></rects>
      <tilted>0</tilted></_>
    <_>
      <rects>
        <_>
          3 17 1 6 -1.</_>
        <_>
          3 20 1 3 2.</_></rects>
      <tilted>0</tilted></_>
    <_>
      <rects>
        <_>
          3 21 3 3 -1.</_>
        <_>
          3 22 3 1 3.</_></rects>
      <tilted>0</tilted></_>
    <_>
      <rects>
        <_>
          3 22 3 2 -1.</_>
        <_>
          3 23 3 1 2.</_></rects>
      <tilted>0</tilted></_>
    <_>
      <rects>
        <_>
          4 0 9 1 -1.</_>
        <_>
          7 0 3 1 3.</_></rects>
      <tilted>0</tilted></_>
    <_>
      <rects>
        <_>
          4 21 4 2 -1.</_>
        <_>
          4 21 2 1 2.</_>
        <_>
          6 22 2 1 2.</_></rects>
      <tilted>0</tilted></_>
    <_>
      <rects>
        <_>
          6 3 12 14 -1.</_>
        <_>
          10 3 4 14 3.</_></rects>
      <tilted>0</tilted></_>
    <_>
      <rects>
        <_>
          6 3 12 16 -1.</_>
        <_>
          10 3 4 16 3.</_></rects>
      <tilted>0</tilted></_>
    <_>
      <rects>
        <_>
          6 20 4 2 -1.</_>
        <_>
          6 20 2 1 2.</_>
        <_>
          8 21 2 1 2.</_></rects>
      <tilted>0</tilted></_>
    <_>
      <rects>
        <_>
          6 22 2 2 -1.</_>
        <_>
          6 23 2 1 2.</_></rects>
      <tilted>0</tilted></_>
    <_>
      <rects>
        <_>
          7 0 16 2 -1.</_>
        <_>
          15 0 8 2 2.</_></rects>
      <tilted>0</tilted></_>
    <_>
      <rects>
        <_>
          7 0 10 14 -1.</_>
        <_>
          7 7 10 7 2.</_></rects>
      <tilted>0</tilted></_>
    <_>
      <rects>
        <_>
          8 0 9 1 -1.</_>
        <_>
          11 0 3 1 3.</_></rects>
      <tilted>0</tilted></_>
    <_>
      <rects>
        <_>
          8 8 6 7 -1.</_>
        <_>
          10 8 2 7 3.</_></rects>
      <tilted>0</tilted></_>
    <_>
      <rects>
        <_>
          9 0 5 12 -1.</_>
        <_>
          9 6 5 6 2.</_></rects>
      <tilted>0</tilted></_>
    <_>
      <rects>
        <_>
          9 5 12 7 -1.</_>
        <_>
          13 5 4 7 3.</_></rects>
      <tilted>0</tilted></_>
    <_>
      <rects>
        <_>
          9 5 14 13 -1.</_>
        <_>
          16 5 7 13 2.</_></rects>
      <tilted>0</tilted></_>
    <_>
      <rects>
        <_>
          9 10 5 6 -1.</_>
        <_>
          9 13 5 3 2.</_></rects>
      <tilted>0</tilted></_>
    <_>
      <rects>
        <_>
          10 5 6 11 -1.</_>
        <_>
          12 5 2 11 3.</_></rects>
      <tilted>0</tilted></_>
    <_>
      <rects>
        <_>
          10 6 14 9 -1.</_>
        <_>
          17 6 7 9 2.</_></rects>
      <tilted>0</tilted></_>
    <_>
      <rects>
        <_>
          10 8 6 6 -1.</_>
        <_>
          12 8 2 6 3.</_></rects>
      <tilted>0</tilted></_>
    <_>
      <rects>
        <_>
          20 2 2 6 -1.</_>
        <_>
          20 2 1 3 2.</_>
        <_>
          21 5 1 3 2.</_></rects>
      <tilted>0</tilted></_>
    <_>
      <rects>
        <_>
          20 3 2 4 -1.</_>
        <_>
          20 3 1 2 2.</_>
        <_>
          21 5 1 2 2.</_></rects>
      <tilted>0</tilted></_>
    <_>
      <rects>
        <_>
          20 8 4 1 -1.</_>
        <_>
          22 8 2 1 2.</_></rects>
      <tilted>0</tilted></_>
    <_>
      <rects>
        <_>
          20 17 2 6 -1.</_>
        <_>
          20 19 2 2 3.</_></rects>
      <tilted>0</tilted></_>
    <_>
      <rects>
        <_>
          20 17 3 6 -1.</_>
        <_>
          20 19 3 2 3.</_></rects>
      <tilted>0</tilted></_>
    <_>
      <rects>
        <_>
          20 19 4 4 -1.</_>
        <_>
          20 19 2 2 2.</_>
        <_>
          22 21 2 2 2.</_></rects>
      <tilted>0</tilted></_>
    <_>
      <rects>
        <_>
          21 14 2 1 -1.</_>
        <_>
          22 14 1 1 2.</_></rects>
      <tilted>0</tilted></_>
    <_>
      <rects>
        <_>
          21 15 2 7 -1.</_>
        <_>
          22 15 1 7 2.</_></rects>
      <tilted>0</tilted></_>
    <_>
      <rects>
        <_>
          22 13 1 4 -1.</_>
        <_>
          22 15 1 2 2.</_></rects>
      <tilted>0</tilted></_>
    <_>
      <rects>
        <_>
          22 16 2 8 -1.</_>
        <_>
          22 16 1 4 2.</_>
        <_>
          23 20 1 4 2.</_></rects>
      <tilted>0</tilted></_>
    <_>
      <rects>
        <_>
          22 17 2 6 -1.</_>
        <_>
          22 17 1 3 2.</_>
        <_>
          23 20 1 3 2.</_></rects>
      <tilted>0</tilted></_>
    <_>
      <rects>
        <_>
          22 18 2 6 -1.</_>
        <_>
          23 18 1 6 2.</_></rects>
      <tilted>0</tilted></_>
    <_>
      <rects>
        <_>
          22 19 2 4 -1.</_>
        <_>
          23 19 1 4 2.</_></rects>
      <tilted>0</tilted></_>
    <_>
      <rects>
        <_>
          22 20 2 4 -1.</_>
        <_>
          23 20 1 4 2.</_></rects>
      <tilted>0</tilted></_>
    <_>
      <rects>
        <_>
          23 11 1 9 -1.</_>
        <_>
          23 14 1 3 3.</_></rects>
      <tilted>0</tilted></_></features></cascade>
</opencv_storage>
