<?xml version="1.0"?>
<opencv_storage>
<stage6>
  <maxWeakCount>5</maxWeakCount>
  <stageThreshold>-6.0185348987579346e-01</stageThreshold>
  <weakClassifiers>
    <_>
      <internalNodes>
        0 -1 14095 1.3993492722511292e-01</internalNodes>
      <leafValues>
        -4.3613708019256592e-01 7.0229005813598633e-01</leafValues></_>
    <_>
      <internalNodes>
        0 -1 188425 -8.8043336290866137e-04</internalNodes>
      <leafValues>
        -9.4055014848709106e-01 2.7722010016441345e-01</leafValues></_>
    <_>
      <internalNodes>
        0 -1 60448 5.8252835879102349e-04</internalNodes>
      <leafValues>
        2.3198725283145905e-01 -8.5638666152954102e-01</leafValues></_>
    <_>
      <internalNodes>
        0 -1 147503 1.1543866712599993e-03</internalNodes>
      <leafValues>
        2.1549160778522491e-01 -8.9708715677261353e-01</leafValues></_>
    <_>
      <internalNodes>
        0 -1 146961 -1.2980815954506397e-03</internalNodes>
      <leafValues>
        -8.0900454521179199e-01 3.2735481858253479e-01</leafValues></_></weakClassifiers></stage6>
</opencv_storage>
